<?xml version="1.0"?>
<opencv_storage>
<cascade>
  <stageType>BOOST</stageType>
  <featureType>HAAR</featureType>
  <height>24</height>
  <width>24</width>
  <stageParams>
    <boostType>GAB</boostType>
    <minHitRate>9.9500000476837158e-01</minHitRate>
    <maxFalseAlarm>5.0000000000000000e-01</maxFalseAlarm>
    <weightTrimRate>9.4999999999999996e-01</weightTrimRate>
    <maxDepth>1</maxDepth>
    <maxWeakCount>100</maxWeakCount></stageParams>
  <featureParams>
    <maxCatCount>0</maxCatCount>
    <featSize>1</featSize>
    <mode>BASIC</mode></featureParams>
  <stageNum>13</stageNum>
  <stages>
    <!-- stage 0 -->
    <_>
      <maxWeakCount>2</maxWeakCount>
      <stageThreshold>-3.2088309526443481e-01</stageThreshold>
      <weakClassifiers>
        <_>
          <internalNodes>
            0 -1 9 4.5068331062793732e-02</internalNodes>
          <leafValues>
            -9.1534394025802612e-01 6.5765768289566040e-01</leafValues></_>
        <_>
          <internalNodes>
            0 -1 19 5.8339990675449371e-02</internalNodes>
          <leafValues>
            -9.7854071855545044e-01 6.6060984134674072e-01</leafValues></_></weakClassifiers></_>
    <!-- stage 1 -->
    <_>
      <maxWeakCount>3</maxWeakCount>
      <stageThreshold>-1.1025744676589966e+00</stageThreshold>
      <weakClassifiers>
        <_>
          <internalNodes>
            0 -1 11 2.0234514027833939e-02</internalNodes>
          <leafValues>
            -8.2266008853912354e-01 6.9072163105010986e-01</leafValues></_>
        <_>
          <internalNodes>
            0 -1 22 -5.0905015319585800e-02</internalNodes>
          <leafValues>
            5.1483726501464844e-01 -8.7497371435165405e-01</leafValues></_>
        <_>
          <internalNodes>
            0 -1 38 -1.1350264772772789e-02</internalNodes>
          <leafValues>
            5.9505933523178101e-01 -7.3289149999618530e-01</leafValues></_></weakClassifiers></_>
    <!-- stage 2 -->
    <_>
      <maxWeakCount>2</maxWeakCount>
      <stageThreshold>-5.7985419034957886e-01</stageThreshold>
      <weakClassifiers>
        <_>
          <internalNodes>
            0 -1 15 4.8356451094150543e-02</internalNodes>
          <leafValues>
            -9.0303027629852295e-01 3.6296296119689941e-01</leafValues></_>
        <_>
          <internalNodes>
            0 -1 3 1.1418715119361877e-01</internalNodes>
          <leafValues>
            -9.4281715154647827e-01 4.4722834229469299e-01</leafValues></_></weakClassifiers></_>
    <!-- stage 3 -->
    <_>
      <maxWeakCount>2</maxWeakCount>
      <stageThreshold>-4.0117412805557251e-01</stageThreshold>
      <weakClassifiers>
        <_>
          <internalNodes>
            0 -1 12 1.7256839200854301e-02</internalNodes>
          <leafValues>
            -9.8709678649902344e-01 3.6551722884178162e-01</leafValues></_>
        <_>
          <internalNodes>
            0 -1 29 1.5347320586442947e-02</internalNodes>
          <leafValues>
            -7.6669138669967651e-01 7.4770635366439819e-01</leafValues></_></weakClassifiers></_>
    <!-- stage 4 -->
    <_>
      <maxWeakCount>4</maxWeakCount>
      <stageThreshold>-6.8514525890350342e-01</stageThreshold>
      <weakClassifiers>
        <_>
          <internalNodes>
            0 -1 10 6.8423874676227570e-02</internalNodes>
          <leafValues>
            -6.3247865438461304e-01 7.2727274894714355e-01</leafValues></_>
        <_>
          <internalNodes>
            0 -1 25 -4.2558466084301472e-03</internalNodes>
          <leafValues>
            5.9962648153305054e-01 -7.9277616739273071e-01</leafValues></_>
        <_>
          <internalNodes>
            0 -1 23 1.0682174935936928e-02</internalNodes>
          <leafValues>
            -1. 3.7586575746536255e-01</leafValues></_>
        <_>
          <internalNodes>
            0 -1 17 8.9816497638821602e-03</internalNodes>
          <leafValues>
            -9.5389240980148315e-01 3.6424374580383301e-01</leafValues></_></weakClassifiers></_>
    <!-- stage 5 -->
    <_>
      <maxWeakCount>3</maxWeakCount>
      <stageThreshold>-8.2503545284271240e-01</stageThreshold>
      <weakClassifiers>
        <_>
          <internalNodes>
            0 -1 0 7.5445100665092468e-02</internalNodes>
          <leafValues>
            -7.5916230678558350e-01 4.1284403204917908e-01</leafValues></_>
        <_>
          <internalNodes>
            0 -1 39 -3.4530714154243469e-02</internalNodes>
          <leafValues>
            7.8953659534454346e-01 -4.6924433112144470e-01</leafValues></_>
        <_>
          <internalNodes>
            0 -1 2 -1.5051811933517456e-02</internalNodes>
          <leafValues>
            4.9781039357185364e-01 -7.6863515377044678e-01</leafValues></_></weakClassifiers></_>
    <!-- stage 6 -->
    <_>
      <maxWeakCount>3</maxWeakCount>
      <stageThreshold>-1.1802093684673309e-01</stageThreshold>
      <weakClassifiers>
        <_>
          <internalNodes>
            0 -1 37 -1.5961127355694771e-02</internalNodes>
          <leafValues>
            1.5527950227260590e-01 -8.9928054809570313e-01</leafValues></_>
        <_>
          <internalNodes>
            0 -1 24 1.7052937299013138e-02</internalNodes>
          <leafValues>
            -7.6208841800689697e-01 4.4827610254287720e-01</leafValues></_>
        <_>
          <internalNodes>
            0 -1 26 -2.4940962903201580e-03</internalNodes>
          <leafValues>
            5.1505929231643677e-01 -7.2157657146453857e-01</leafValues></_></weakClassifiers></_>
    <!-- stage 7 -->
    <_>
      <maxWeakCount>4</maxWeakCount>
      <stageThreshold>-6.4773106575012207e-01</stageThreshold>
      <weakClassifiers>
        <_>
          <internalNodes>
            0 -1 1 2.6365596801042557e-02</internalNodes>
          <leafValues>
            -6.8807339668273926e-01 6.0975611209869385e-01</leafValues></_>
        <_>
          <internalNodes>
            0 -1 30 1.6720365732908249e-02</internalNodes>
          <leafValues>
            -7.2705227136611938e-01 4.5371744036674500e-01</leafValues></_>
        <_>
          <internalNodes>
            0 -1 34 1.8726647831499577e-03</internalNodes>
          <leafValues>
            -6.9826960563659668e-01 4.3954911828041077e-01</leafValues></_>
        <_>
          <internalNodes>
            0 -1 21 1.5191337093710899e-02</internalNodes>
          <leafValues>
            3.2784548401832581e-01 -8.3707326650619507e-01</leafValues></_></weakClassifiers></_>
    <!-- stage 8 -->
    <_>
      <maxWeakCount>4</maxWeakCount>
      <stageThreshold>-8.6562758684158325e-01</stageThreshold>
      <weakClassifiers>
        <_>
          <internalNodes>
            0 -1 4 -1.0178219527006149e-02</internalNodes>
          <leafValues>
            4.4999998807907104e-01 -6.1818182468414307e-01</leafValues></_>
        <_>
          <internalNodes>
            0 -1 27 7.4740487616509199e-04</internalNodes>
          <leafValues>
            -6.7599266767501831e-01 3.6746755242347717e-01</leafValues></_>
        <_>
          <internalNodes>
            0 -1 33 -1.3291279319673777e-03</internalNodes>
          <leafValues>
            2.7258488535881042e-01 -9.5201629400253296e-01</leafValues></_>
        <_>
          <internalNodes>
            0 -1 13 9.4316923059523106e-04</internalNodes>
          <leafValues>
            -7.5836694240570068e-01 3.3710297942161560e-01</leafValues></_></weakClassifiers></_>
    <!-- stage 9 -->
    <_>
      <maxWeakCount>4</maxWeakCount>
      <stageThreshold>-5.4356318712234497e-01</stageThreshold>
      <weakClassifiers>
        <_>
          <internalNodes>
            0 -1 6 1.1742109805345535e-01</internalNodes>
          <leafValues>
            -5.8798283338546753e-01 5.5223882198333740e-01</leafValues></_>
        <_>
          <internalNodes>
            0 -1 32 -4.2815161868929863e-03</internalNodes>
          <leafValues>
            7.1394795179367065e-01 -4.8916789889335632e-01</leafValues></_>
        <_>
          <internalNodes>
            0 -1 8 -3.0425984412431717e-02</internalNodes>
          <leafValues>
            2.9542285203933716e-01 -1.</leafValues></_>
        <_>
          <internalNodes>
            0 -1 16 -2.1216383203864098e-02</internalNodes>
          <leafValues>
            3.4768468141555786e-01 -8.0974990129470825e-01</leafValues></_></weakClassifiers></_>
    <!-- stage 10 -->
    <_>
      <maxWeakCount>3</maxWeakCount>
      <stageThreshold>-2.0177698135375977e-01</stageThreshold>
      <weakClassifiers>
        <_>
          <internalNodes>
            0 -1 40 -7.5158830732107162e-03</internalNodes>
          <leafValues>
            5.2777779102325439e-01 -6.0526317358016968e-01</leafValues></_>
        <_>
          <internalNodes>
            0 -1 20 1.8094450235366821e-02</internalNodes>
          <leafValues>
            -9.3011039495468140e-01 2.7804806828498840e-01</leafValues></_>
        <_>
          <internalNodes>
            0 -1 28 2.0869161933660507e-02</internalNodes>
          <leafValues>
            -9.3113815784454346e-01 2.0055563747882843e-01</leafValues></_></weakClassifiers></_>
    <!-- stage 11 -->
    <_>
      <maxWeakCount>4</maxWeakCount>
      <stageThreshold>-4.2217108607292175e-01</stageThreshold>
      <weakClassifiers>
        <_>
          <internalNodes>
            0 -1 5 1.3792893290519714e-01</internalNodes>
          <leafValues>
            -5.3359681367874146e-01 7.4468082189559937e-01</leafValues></_>
        <_>
          <internalNodes>
            0 -1 35 2.9544029384851456e-02</internalNodes>
          <leafValues>
            -5.0442504882812500e-01 6.1994409561157227e-01</leafValues></_>
        <_>
          <internalNodes>
            0 -1 18 -1.9555110484361649e-02</internalNodes>
          <leafValues>
            -8.6244952678680420e-01 3.4131872653961182e-01</leafValues></_>
        <_>
          <internalNodes>
            0 -1 36 -2.1022534929215908e-03</internalNodes>
          <leafValues>
            3.5393118858337402e-01 -8.1177669763565063e-01</leafValues></_></weakClassifiers></_>
    <!-- stage 12 -->
    <_>
      <maxWeakCount>3</maxWeakCount>
      <stageThreshold>-4.6233940869569778e-02</stageThreshold>
      <weakClassifiers>
        <_>
          <internalNodes>
            0 -1 7 4.9770146608352661e-02</internalNodes>
          <leafValues>
            -5.1351350545883179e-01 8.0487805604934692e-01</leafValues></_>
        <_>
          <internalNodes>
            0 -1 14 6.6719334572553635e-03</internalNodes>
          <leafValues>
            -1. 2.5546270608901978e-01</leafValues></_>
        <_>
          <internalNodes>
            0 -1 31 -8.6990166455507278e-03</internalNodes>
          <leafValues>
            -9.8676395416259766e-01 2.1181686222553253e-01</leafValues></_></weakClassifiers></_></stages>
  <features>
    <_>
      <rects>
        <_>
          0 3 24 2 -1.</_>
        <_>
          8 3 8 2 3.</_></rects>
      <tilted>0</tilted></_>
    <_>
      <rects>
        <_>
          0 4 8 3 -1.</_>
        <_>
          4 4 4 3 2.</_></rects>
      <tilted>0</tilted></_>
    <_>
      <rects>
        <_>
          0 4 12 8 -1.</_>
        <_>
          0 4 6 4 2.</_>
        <_>
          6 8 6 4 2.</_></rects>
      <tilted>0</tilted></_>
    <_>
      <rects>
        <_>
          0 6 24 15 -1.</_>
        <_>
          0 11 24 5 3.</_></rects>
      <tilted>0</tilted></_>
    <_>
      <rects>
        <_>
          0 16 6 5 -1.</_>
        <_>
          2 16 2 5 3.</_></rects>
      <tilted>0</tilted></_>
    <_>
      <rects>
        <_>
          0 19 21 5 -1.</_>
        <_>
          7 19 7 5 3.</_></rects>
      <tilted>0</tilted></_>
    <_>
      <rects>
        <_>
          0 20 24 4 -1.</_>
        <_>
          8 20 8 4 3.</_></rects>
      <tilted>0</tilted></_>
    <_>
      <rects>
        <_>
          1 2 4 19 -1.</_>
        <_>
          3 2 2 19 2.</_></rects>
      <tilted>0</tilted></_>
    <_>
      <rects>
        <_>
          1 5 22 9 -1.</_>
        <_>
          1 8 22 3 3.</_></rects>
      <tilted>0</tilted></_>
    <_>
      <rects>
        <_>
          1 8 20 6 -1.</_>
        <_>
          1 11 20 3 2.</_></rects>
      <tilted>0</tilted></_>
    <_>
      <rects>
        <_>
          1 20 21 3 -1.</_>
        <_>
          8 20 7 3 3.</_></rects>
      <tilted>0</tilted></_>
    <_>
      <rects>
        <_>
          2 1 6 6 -1.</_>
        <_>
          5 1 3 6 2.</_></rects>
      <tilted>0</tilted></_>
    <_>
      <rects>
        <_>
          3 2 18 2 -1.</_>
        <_>
          9 2 6 2 3.</_></rects>
      <tilted>0</tilted></_>
    <_>
      <rects>
        <_>
          3 3 9 2 -1.</_>
        <_>
          6 3 3 2 3.</_></rects>
      <tilted>0</tilted></_>
    <_>
      <rects>
        <_>
          3 9 18 5 -1.</_>
        <_>
          9 9 6 5 3.</_></rects>
      <tilted>0</tilted></_>
    <_>
      <rects>
        <_>
          4 0 18 9 -1.</_>
        <_>
          4 3 18 3 3.</_></rects>
      <tilted>0</tilted></_>
    <_>
      <rects>
        <_>
          4 3 10 16 -1.</_>
        <_>
          4 3 5 8 2.</_>
        <_>
          9 11 5 8 2.</_></rects>
      <tilted>0</tilted></_>
    <_>
      <rects>
        <_>
          4 10 13 6 -1.</_>
        <_>
          4 12 13 2 3.</_></rects>
      <tilted>0</tilted></_>
    <_>
      <rects>
        <_>
          4 15 17 9 -1.</_>
        <_>
          4 18 17 3 3.</_></rects>
      <tilted>0</tilted></_>
    <_>
      <rects>
        <_>
          5 0 15 10 -1.</_>
        <_>
          10 0 5 10 3.</_></rects>
      <tilted>0</tilted></_>
    <_>
      <rects>
        <_>
          5 5 7 18 -1.</_>
        <_>
          5 11 7 6 3.</_></rects>
      <tilted>0</tilted></_>
    <_>
      <rects>
        <_>
          5 5 15 18 -1.</_>
        <_>
          5 14 15 9 2.</_></rects>
      <tilted>0</tilted></_>
    <_>
      <rects>
        <_>
          6 4 12 9 -1.</_>
        <_>
          6 7 12 3 3.</_></rects>
      <tilted>0</tilted></_>
    <_>
      <rects>
        <_>
          6 7 12 4 -1.</_>
        <_>
          10 7 4 4 3.</_></rects>
      <tilted>0</tilted></_>
    <_>
      <rects>
        <_>
          6 8 12 4 -1.</_>
        <_>
          6 10 12 2 2.</_></rects>
      <tilted>0</tilted></_>
    <_>
      <rects>
        <_>
          6 14 12 2 -1.</_>
        <_>
          10 14 4 2 3.</_></rects>
      <tilted>0</tilted></_>
    <_>
      <rects>
        <_>
          6 22 12 2 -1.</_>
        <_>
          6 23 12 1 2.</_></rects>
      <tilted>0</tilted></_>
    <_>
      <rects>
        <_>
          7 15 6 2 -1.</_>
        <_>
          7 15 3 1 2.</_>
        <_>
          10 16 3 1 2.</_></rects>
      <tilted>0</tilted></_>
    <_>
      <rects>
        <_>
          9 2 12 18 -1.</_>
        <_>
          9 2 6 9 2.</_>
        <_>
          15 11 6 9 2.</_></rects>
      <tilted>0</tilted></_>
    <_>
      <rects>
        <_>
          9 6 6 7 -1.</_>
        <_>
          11 6 2 7 3.</_></rects>
      <tilted>0</tilted></_>
    <_>
      <rects>
        <_>
          9 8 6 16 -1.</_>
        <_>
          11 8 2 16 3.</_></rects>
      <tilted>0</tilted></_>
    <_>
      <rects>
        <_>
          10 13 2 10 -1.</_>
        <_>
          10 18 2 5 2.</_></rects>
      <tilted>0</tilted></_>
    <_>
      <rects>
        <_>
          10 13 3 2 -1.</_>
        <_>
          10 14 3 1 2.</_></rects>
      <tilted>0</tilted></_>
    <_>
      <rects>
        <_>
          11 8 6 2 -1.</_>
        <_>
          14 8 3 2 2.</_></rects>
      <tilted>0</tilted></_>
    <_>
      <rects>
        <_>
          13 12 9 1 -1.</_>
        <_>
          16 12 3 1 3.</_></rects>
      <tilted>0</tilted></_>
    <_>
      <rects>
        <_>
          14 4 10 6 -1.</_>
        <_>
          14 4 5 3 2.</_>
        <_>
          19 7 5 3 2.</_></rects>
      <tilted>0</tilted></_>
    <_>
      <rects>
        <_>
          14 13 2 6 -1.</_>
        <_>
          14 16 2 3 2.</_></rects>
      <tilted>0</tilted></_>
    <_>
      <rects>
        <_>
          15 2 8 4 -1.</_>
        <_>
          19 2 4 4 2.</_></rects>
      <tilted>0</tilted></_>
    <_>
      <rects>
        <_>
          15 4 8 2 -1.</_>
        <_>
          19 4 4 2 2.</_></rects>
      <tilted>0</tilted></_>
    <_>
      <rects>
        <_>
          18 7 6 9 -1.</_>
        <_>
          20 7 2 9 3.</_></rects>
      <tilted>0</tilted></_>
    <_>
      <rects>
        <_>
          20 0 2 11 -1.</_>
        <_>
          21 0 1 11 2.</_></rects>
      <tilted>0</tilted></_></features></cascade>
</opencv_storage>
